digraph Tree {
node [shape=box] ;
0 [label="Petal.Length <= 2.6\nentropy = 1.583\nsamples = 117\nvalue = [40, 41, 36]"] ;
1 [label="entropy = 0.0\nsamples = 40\nvalue = [40, 0, 0]"] ;
0 -> 1 [labeldistance=2.5, labelangle=45, headlabel="True"] ;
2 [label="Petal.Length <= 4.75\nentropy = 0.997\nsamples = 77\nvalue = [0, 41, 36]"] ;
0 -> 2 [labeldistance=2.5, labelangle=-45, headlabel="False"] ;
3 [label="entropy = 0.0\nsamples = 36\nvalue = [0, 36, 0]"] ;
2 -> 3 ;
4 [label="Petal.Width <= 1.75\nentropy = 0.535\nsamples = 41\nvalue = [0, 5, 36]"] ;
2 -> 4 ;
5 [label="entropy = 0.985\nsamples = 7\nvalue = [0, 4, 3]"] ;
4 -> 5 ;
6 [label="Petal.Length <= 4.85\nentropy = 0.191\nsamples = 34\nvalue = [0, 1, 33]"] ;
4 -> 6 ;
7 [label="entropy = 0.918\nsamples = 3\nvalue = [0, 1, 2]"] ;
6 -> 7 ;
8 [label="entropy = 0.0\nsamples = 31\nvalue = [0, 0, 31]"] ;
6 -> 8 ;
}